{"Layers":[[[0,0,0,0,0,0],[0,0,0,0,1,0],[0,0,0,1,0,0],[0,0,0,0,0,1],[0,0,0,0,0,1],[1,0,0,0,0,0],[0,1,0,0,0,0],[0,0,1,0,0,0]],[[0.47201227815399277,0.2791377419179966,0.6853070778923765,0.34196470403324575,0.377093383533489,0.4880706690508336,0.4209804908605027,0.49802606754143547,0.35717375721805006,0.7332585502905579,0.5571762699286776,0.29508089791988534,0.7218161708054027,0.4079677556220811,0.6512645727382951,0.35472280087292685,0.702738655567775,0.5934825107153299,0.7085764963984679,0.643968128012417,0.3463942587557559,0.7141923070649608,0.6784284907978642,0.546689368049961,0.689829004307934,0.5709376305717735,0.44524071293357276,0.4496928144881424,0.6860384287243166,0.7148096023920578,0.5110861961756017,0.4038115378416522,0.7256810563061055,0.4748826196443109,0.3371432532528685,0.3602503014709929,0.7071568880958135,0.6231676213602435,0.5279348719328201,0.6227403765337218,0.670871034560887,0.48933291960454905,0.5215848821048684,0.4838836045008066,0.5192133805647169,0.7172181697300458,0.5253116071591944,0.6054450805420527,0.500734279203905,0.309480258097978],[0.5515330879470622,0.5369632731807664,0.14274275213440696,0.5033046717825602,0.25954732698712024,0.46240415361702697,0.8514265236284,0.13420988307248904,0.19400081932447644,0.4720656591535861,0.45011089836040885,0.5056178565549898,0.6335902920261066,0.6651371322752561,0.12322082429858325,0.3273596885476572,0.5902312791697798,0.03284025451878988,0.7984688664684378,0.8058489507812133,0.46283561695759107,0.4848591025203596,0.4134132077156008,0.3478679751995731,0.3580291683445762,0.6464836054876124,0.16357095740919003,0.5918507654469927,0.5801950923278303,0.7904645490216073,0.31691012103548727,0.5387576922272662,0.6892325234003849,0.2348070164059912,0.09418743145322048,0.5816725099247682,0.6388329083934497,0.6070412810247583,0.698627104714288,0.5062394685434988,0.5765516412418807,0.8458772977623525,0.5831230019590684,0.5491095868286349,0.6961035049009185,0.7633434631182076,0.2475901743955795,0.44021702013929404,0.24877556782875096,0.7677080327138963],[0.3831763619128188,0.46517458555194635,0.25256310935455345,0.801177335148769,0.7406926171557076,0.2913744730121793,0.45390057360372654,0.4573706544223825,0.35810066756682624,0.40339096242697753,0.48755008205686745,0.6415182550556231,0.3847730594361672,0.2996115888436084,0.05117075662570404,0.5080220344447866,0.20946389584621006,0.019548230525118754,0.09825138085763732,0.6093421161729078,0.4139310441872154,0.4770838043708893,0.40965617726267584,0.686869906260152,0.6520501677696906,0.5504650365687784,0.6827511401897686,0.6848753706998459,0.54743574346495,0.6181526283062326,0.17704144212745285,0.5689183167890872,0.47263663107668374,0.33192811685966617,0.5571345895014733,0.6380200976505631,0.617416182456725,0.5582706368588827,0.24195845827481213,0.5624036895254783,0.5097984814957989,0.510743193344707,0.5447624941982184,0.5740832190207512,0.7463148939302382,0.6075341228767542,0.004928188806486382,0.8333957889310483,0.3568289915135218,0.3466045622515758],[0.5738753490426559,0.6268120351773163,0.7676630788645528,0.8077057292924331,0.7476813068611353,0.4267030417163189,0.6475665147076415,0.5346953221122939,0.22124251221514168,0.6763751645788932,0.4642184851616617,0.7544894774978361,0.15427955829549472,0.7289042886326235,0.6113306701756425,0.5405301463851704,0.08201824693914873,0.7707652352134973,0.850918078909428,0.13725778186003096,0.732315251347004,0.549240174118993,0.2911261489232143,0.6710515783792865,0.4208158947812301,0.32024477943263774,0.4543908959827652,0.5991356501692814,0.3433563107710674,0.6708159734390622,0.5187063083985822,0.30666099852592343,0.01303636908513481,0.3630068597326622,0.7166793275395489,0.38495321117215014,0.01888222737272667,0.5335259030840765,0.017659935272644502,0.500125534488176,0.34281960293194547,0.5285004727987677,0.586127134642261,0.16339456965956373,0.3358495322368939,0.40419255717863145,0.8540193442463075,0.5991694704555585,0.10117090798783338,0.33236632953851736],[0.4116931229602665,0.835562434632296,0.6760968780198401,0.8498266621868081,0.555120143656348,0.5421294538664039,0.6090050281475213,0.6060310043031328,0.17425061412542245,0.44972710266342436,0.3147110342408421,0.44520845330136916,0.14619919504286238,0.8147403820981668,0.443851432522177,0.5109632780085337,0.3996166748530719,0.7270156052592852,0.7040402307586497,0.05506271943466178,0.7864201891181983,0.4878982578502059,0.1017909959034759,0.6889759084648764,0.504781911123782,0.5954113492384525,0.3742076720202211,0.469166576376851,0.5714543459848646,0.764826267244839,0.44030371323191636,0.10389316158565223,0.03244256153751427,0.4523931439888051,0.47306768177740305,0.341554535821708,0.09218458158514786,0.7862591437305879,0.02933997342919781,0.33386638655684947,0.3979473140517359,0.6251913928377536,0.5978137815723904,0.038053339709934624,0.49227742570346616,0.3373919011040092,0.5750842296938111,0.29394318534695774,0.11753793223184056,0.5043031816124516],[0.20186126659789908,0.795036218104501,0.6753506328376989,0.23960703206814046,0.5637438566752215,0.46493053699311937,0.1840067542464159,0.39354447764575734,0.36061679545532094,0.18015540375791886,0.5271369246725327,0.5735158822212884,0.5491633883229273,0.6234594291362473,0.42015219008508997,0.26404312420025566,0.4441379307407426,0.31988572464874826,0.40619120686144844,0.08709985046983658,0.0218735966171593,0.4126206969108046,0.674031544522312,0.4856355739622916,0.6371753847530719,0.5485646453157763,0.5910357399739342,0.06683409319148538,0.7369957934912394,0.20097122334186088,0.4892470074951937,0.15982616524933405,0.3028080812135578,0.4193872320497697,0.7281458769298553,0.5098471287989224,0.43624032567032606,0.2637237208285468,0.6524941030038943,0.6118557835966361,0.17749033408603515,0.6933222194940449,0.12123738595647346,0.3939426853482905,0.6844580018078052,0.11312254110727674,0.5155310823175637,0.3771954778781172,0.7019794342220913,0.2974256703899106],[0.4211643667884029,0.2291416864279701,0.8482099380545548,0.35639287499779243,0.8695673453274816,0.15813857570369405,0.2210428051294439,0.6673674204914019,0.34507841532842326,0.4389684954278202,0.6148486154814249,0.7992166234398822,0.6051036085718806,0.7896137873754481,0.48949842052179343,0.5100560582388762,0.8014843859538856,0.48015669744153405,0.8181325003202322,0.7675659968409929,0.020246499800524845,0.600906110733062,0.7164007005182977,0.7246478443357806,0.30252152920435,0.4117710432633555,0.6671703705181378,0.4566584741863025,0.5958551518054589,0.4111703612810034,0.7941694280866435,0.3647317927533485,0.312544401467766,0.7659182805896922,0.7134362771144892,0.5976268773955205,0.6701177390776857,0.6191841810780749,0.42086074227236386,0.671674280237856,0.6875435039938995,0.6473570288329937,0.3755383968439631,0.7108873720349301,0.253607646722664,0.032341418206967655,0.5289882618812137,0.03274253785351687,0.47777197218700934,0.5451373987451308],[0.1687077443452228,0.43927693179921834,0.5542322606762109,0.29342530223971314,0.5644141428294989,0.6508827528571853,0.19058669345208537,0.5222250013678448,0.6174480922826409,0.31687721515065587,0.48826751618440234,0.45824762044660605,0.2893495546139279,0.1207472045703849,0.4070205997667461,0.5077425350102129,0.6034630244122795,0.6277432739007079,0.6590792730138497,0.4718713017076146,0.054402991584688566,0.5731688670518414,0.2533938239893806,0.5171942781501007,0.5936700171888188,0.4012354482962634,0.47003185252262686,0.33866418548209254,0.46007184172703863,0.3534096903424368,0.6967279579047913,0.2632614164317618,0.5979936356123907,0.8409953017177622,0.5435983804057324,0.38252161453476957,0.7557426708061459,0.10222181188588722,0.44381966207604007,0.5060469839260482,0.3580805812102555,0.5268224813767549,0.6726556478306831,0.5549531465912877,0.4221382033180248,0.12035723516391647,0.6603594701941441,0.46726093309983324,0.6526580535703358,0.3089883231410353]],[[0.002953957284694759,0.002903388146433179,0.0008330334659556904],[0.0017169387001716107,0.8485905024554241,0.0010312722791650324],[0.0015425600310079528,0.8341733360254378,0.0019152816106302623],[0.0023680329103668357,0.0008029485163733467,0.8548523783956619],[0.0012724285964769925,0.002111009582684683,0.8586536298692211],[0.8644148932609319,0.0011068076584490692,0.0016036799208932848],[0.847522022130821,0.001383982748946521,0.0008610523532609711],[0.8594815363411924,0.0010179842625498807,0.0012879354602430696]]],"Weights":[[[-0.27164534195110285,0.8624330530197288,0.3894396312729987,-0.45838583165835683,-0.07557402701060499,0.33812400743046944,-1.0160648691276601,-0.6371675215205604,-0.6176296550873044,-0.5672258666264528,0.22274061154657537,0.5807615365049713,-0.4920836657751895,-0.2502507753715446,-0.22030972377915312,-0.22348562323314383,-0.2764615363848804,-0.27341912005427804,0.3903652146906546,-1.1208677956065483,-1.7235171191570045,-0.46687360486404084,0.15043887333366285,0.6499952609518761,-0.400458122079307,-0.336719079279253,0.4940521622639858,-1.3628616956663482,0.7681043392258035,-0.015861808456293654,0.4058182947035578,-1.3015299505803428,-0.4968439470428155,0.16359904625074526,1.0298516337686945,-0.8163325573107738,0.2611285644356664,-1.157145868838418,0.5368558784712578,-0.41259517587725975,-0.6830135901134018,0.17969306120338116,-0.4646306182229714,-0.0307995131238376,-0.1405083694992687,-0.5622521228337853,-0.2186514859818141,-0.7663985064437346,0.6715891110448539,-0.47272479834369896],[0.519232943539476,-0.6276385433866497,0.8035041835371869,-0.9892797848833322,0.9608163989997288,-0.9278094596952792,-0.6790874113248004,0.3795784425218374,-0.3347278952151023,-0.4276184648932935,0.9774389689936586,0.47212317837221646,0.6579055143974246,0.46071896050230027,-0.4534850403501871,-0.227048510702284,0.8123491419336782,0.5771176368787876,0.9665391038362193,0.7953920347574895,-1.9719941837882595,-0.11108919107235506,0.8552842055288625,0.8932381067890224,-0.2882754383438505,0.46194311409274313,0.4306420954179316,-0.1420603970403671,0.38546857140278534,-0.10010048688778413,0.5640091402679608,-0.4406780092267571,-0.6698634575049927,0.9706458799483608,0.888769823231209,-0.3345897422395541,0.45237598767757037,0.19281690999777817,-0.4062901818529751,0.3356792488218536,0.23331519402688192,-0.11541863383913484,-0.8020327615284953,0.1331145760766251,-0.6619749853153033,-1.4875435584898784,0.6333764720614601,-1.744287903437476,-0.1452481448164994,-0.2728850810435443],[-0.6542874606683752,0.1299568666906538,0.22908263522992128,-0.03195878811758055,0.5336475471989802,0.6407272444948824,-1.1354870119903138,0.49247268619718004,-0.1334605450898576,-0.12804212771641954,0.44233426947767135,-0.24856446521736825,-0.754016982358472,-1.0459280325571254,-0.826880707681531,0.7530849650659883,0.2589492414490841,0.16750669196131204,0.6466708077130748,0.5704859318043072,-1.0384650562355782,0.09214458580570409,-0.9283827630118288,0.6209114741410449,-0.4930362724778908,0.41482656502147686,-0.5244710875692831,-1.0080179809579208,0.3619859921894579,0.3643664459894667,0.4972697191562905,-1.2230166651943988,0.12767286981712647,0.9479082993408656,0.7540102067420915,-0.36050113180048904,0.5179530877049137,-1.1466924076277958,0.13933769867805992,0.6314048265176306,-0.55825908617372,0.518807577520634,-0.08558087897562608,-0.6200297891505531,-0.916922099181528,-0.8470336870013865,0.3082409638701241,0.6098347860802177,0.27197380652648895,-0.01817806524470094],[-0.18861268233345532,0.2331615937194056,-0.09875531152141812,0.8650712073727325,0.5657841361242049,-0.9944468965344695,0.46957467855564516,-0.3497205570808143,-0.5522372725462361,-0.924899632961042,0.5652353155435621,0.4246293383678974,-0.9018734950014892,-0.15237623560059124,-1.815744625038391,-0.5319002945972119,-0.669859173917166,-2.1546282889181927,-1.2151341135578768,-0.2619237342039351,0.04967148009197581,0.3526347056219812,0.22895461181370774,-0.038470254396600595,0.3667301471671046,0.5085231547308305,-0.05978352760215101,0.5054238544415345,0.4733449470917866,0.2058337834313151,-1.592901016453758,-0.564453003550044,-0.45897140576618606,-0.4041007441175342,0.4781850900109123,-0.3219723981792251,-0.1604598191978727,-0.08511653668266815,-0.6029319038866144,-0.03942188664887628,-0.0020318819333111655,-0.21460409958636237,-0.39840327253213076,-0.20188812043742935,0.7306641330356165,0.6701844110096854,-2.982856861623242,1.0341323674954839,-0.009400991713615473,-0.4919621171228574],[0.6216968864490424,-0.75928865710775,-1.2143390131565728,0.3118858556677815,-0.6891510222470355,0.6760374397149495,0.9451710393966088,-0.724002537648444,-0.9645009318244466,0.7799611806575599,-0.8625895730477711,0.4000142038342323,-0.4034213539832534,-0.13481099072698446,-0.6648453336869478,-0.5814830483427077,0.32083843329382283,-1.46765564603759,0.7750604217783927,0.9563760116182098,-0.01234239444536037,0.21872551722705313,-0.10959857217985587,-1.0456439649360398,0.3481948783142964,-0.1104957878325644,-0.7059242392182083,1.059972772733931,-0.5518227752415825,0.5295006838983634,-1.3108736744471898,0.7622480945525334,0.3114408771653711,-0.12868864125165944,-1.4668565770862416,0.4133531828536767,0.8175275712802694,1.1544896543708394,0.6703184458534859,0.5845528494504919,-0.43069465969326914,0.8042141866590489,-0.6938668909724848,0.7043204175265255,0.3234241896724357,0.5808073544826475,-0.3739036411440103,-0.3621838450316232,-1.010241330534694,0.19554759935598695],[-0.11893557396437889,1.059551016786318,0.23578528149903977,1.0836514909546424,0.6489395834598438,-0.16893844731494845,0.4806075981544617,0.9221019512724333,-1.0208448300190573,-0.09320941646280669,0.470335401337354,0.5685254193656074,-0.7131965675633345,0.6515864067435332,0.1078789608936158,0.40031383058718223,-0.8659870297765592,0.9971534131868434,0.956337036293065,-1.5825530031153514,0.7109425734726013,-0.11117927250762476,-1.3003640227167184,0.018781025907663507,0.6832230639456346,0.3504618350991829,-0.17491342962607107,0.3548190507280142,-0.6331976449411105,0.26141949846036777,0.5529866292907355,-1.3108082758987387,-2.4236735774015115,-0.22816722748810342,0.6094801017767314,-0.3622442797739323,-2.2140757376878533,0.74217729522162,-1.9997508578715957,-0.27010507638677156,0.03161378057530012,0.4613947027562716,0.695114259753748,-1.8331780137698543,-0.7240244794612056,-0.4200397325049964,0.8196304669440596,-0.09643241200734355,-1.085648082570172,0.224728869658285]],[[-1.0575082695237241,0.0037624688546305236,0.6036065106426384],[-0.15801547355177153,0.33222286030232895,0.6043570034373658],[0.9808045276410724,-0.5186986282067455,0.2310082743137089],[-1.1374787336959078,-0.6415625154962812,1.1788535620802947],[0.35074216890907084,-0.4430324402054617,-0.21663191492255524],[-0.8811039676111401,-0.9263345758164014,-0.7580353574548072],[-0.607282251824184,0.14717698516397199,0.641256362595044],[-0.5592122410347466,-1.1823866826337928,-0.8888775237490162],[0.7855297326998438,0.2759737310325894,-0.23465689255304722],[-1.1172533149433301,-1.1111866671116701,-0.05623233027282552],[0.954241028845348,0.274763471546919,-0.275967751204918],[0.2534157364006749,0.6926256497031505,0.32724351582191846],[0.0350527461139176,-0.3892896635274791,-0.8873008140778564],[-0.17941961309714924,-0.4514341018821486,0.45182477832162915],[0.4383184636367867,-1.1404933950366343,0.6231288597154478],[-0.5796777932755179,-0.038899435089940704,-0.4443105986598588],[0.8538549232809748,-0.05622341467298381,-0.4468803244770006],[0.14732444873861358,-2.0779309008381754,1.1895865062086561],[0.28205745313183406,-0.627677708412507,0.7939987665949163],[-0.6879715723433677,1.2160159488339273,-0.8210729984124732],[-1.6746824387192163,0.5175272474619997,0.9968280817054411],[-0.8632827115516772,-0.06348668713409174,-0.49507119408258027],[-0.43096744446704616,-0.5560330561079133,-1.4084104612412685],[-0.8296418887531428,-0.9479498325719503,-0.2739086536638555],[-0.6825935205715029,-0.6468453767615131,-1.2418671884245398],[0.5751518088298939,0.7645078132583188,-0.073581353387861],[-0.21346148228058492,-0.981422200024042,-0.1706586109080446],[-1.2457217136522518,0.9498184570435086,-0.05512433647536454],[0.6545417140087124,0.09954745572406447,-0.37484303534730934],[-1.2386083050073409,-0.26107869634299824,0.6605947455299435],[0.9876120501242434,-1.1640236893887077,-0.35020366100039985],[-0.8430694210998118,0.7842346079058993,-0.7222847249426416],[-0.16142354743442885,0.2966067336512262,-1.6984383235168596],[0.35887319745453905,-0.48110816612556107,0.11429307421521759],[0.6406154714145069,-1.1351904697449025,-0.6954401454029377],[0.5110636555549858,0.41399968021713507,0.32608325951961264],[0.44698480225410037,0.5287731252209543,-1.0964405260222996],[-0.9600527867170393,0.536386320980012,-0.34058700361355293],[0.7206645147512741,-0.22956338825010414,-1.494223360741321],[-0.6770112474005896,-1.0422436407441675,-0.7418691135807753],[-0.12855060483360378,0.3179760486316334,-0.3765469758028876],[0.6269749442734667,-0.6985238351148054,-0.29197487028476643],[-0.6878458083035724,0.6656076796587203,0.4297291877744175],[0.6855741498301678,0.2930083950931997,-1.4168842289722448],[-0.2010381529853446,0.6852831775843575,-0.9370460956611758],[-1.7608107592231794,0.7581316071761675,-0.5176624762742423],[0.7632991608662707,-1.866507331823642,0.7050612966145108],[-0.9964155313563329,1.1177032070973005,0.429345507036737],[0.8606983431888291,-0.2723558074236827,-1.4867182358435773],[-0.5894938332396511,0.2476156416041326,-0.25039530000695537]]],"Biases":[[[-0.11206803107100703,-0.9487427175287244,0.7782697138068542,-0.6545510440180422,-0.50190375578479,-0.0477263810257809,-0.31874967893694856,-0.007895770854635659,-0.5876520804953579,1.0112185325065046,0.22970986258553572,-0.8708334984231058,0.953488344148243,-0.3723729593122697,0.6246024227497334,-0.5983433487137033,0.8603733672841397,0.3783807934377087,0.8884804747841778,0.5926289793160597,-0.6349267250204335,0.9158330813697294,0.7465591380535432,0.1873031459812583,0.799320002624275,0.2856776836259693,-0.21991923880851252,-0.20191192623266388,0.7816630507591545,0.9188591978747069,0.04435205370017576,-0.3896085501264042,0.9728191444017362,-0.10055416227283458,-0.6760509747188223,-0.5742779320897172,0.881615536703911,0.5030150681684954,0.1118559682261847,0.501196094003184,0.7121272534604288,-0.04267479679475495,0.08639322340926937,-0.06448792149020967,0.07689138352125491,0.9307043931090553,0.10133305027341352,0.4282055144576377,0.0029371189270806395,-0.8025502595209708],[-0.4148299573681442,0.9074119821667653,-0.5783549588289446,-0.2986669760533314,-0.3591716336374042,-0.8267052026182854,0.8006625402146501,-1.1402351161528181,-0.45971941177360315,-0.8918150178864912,0.6623669417382876,-0.3775418319356702,0.9510717444266839,0.8210831261283569,-1.2974317666709012,-0.1386681515789031,0.04408312038685332,-1.9150529979319366,0.6016916768028262,0.4668838470182232,-0.136589814816796,-0.27930762934780423,-0.24027447266492408,0.4172199576635776,-0.9321232885090278,0.7141137649000896,-0.9259705645995134,-0.688351133511906,0.8753970904872839,0.7982271833458323,0.5428654329684134,-0.6069056936206585,0.4850928475784659,-1.0526754569109475,-0.7966890809537904,-0.08371018607235188,-0.24722534919232955,-0.7195974229224051,0.17045033161293907,-0.5595936796431801,0.7393280050875146,0.8984110713825428,1.0294738265712828,-0.507246707887501,0.5053870067601343,0.5902908452267062,-0.7376026585697132,0.12190250528178635,-0.0949119650222167,0.9998668356472661],[-0.2874751047656018,-0.37268917130184565,-0.9862334074251302,0.5285978113576959,0.4837874171071466,0.10572896894396863,-0.6544975641649942,0.17878819722505057,-0.03138007459151633,0.5335438342985029,-0.6150452831089072,0.15733056402569723,0.43253599069551696,-0.6967718866898227,-1.104316014944259,0.563991186093816,-0.6583007645953407,-1.76050039367263,-1.0016723697346137,0.7064714117516814,-0.39740953476324037,-0.44436375308302734,-0.5943415135415467,0.8239964245697294,0.2613330471068641,-0.30597334654777203,0.8262274453413135,0.27084481753403555,-0.2830296122739359,0.27588063667816165,0.05637901348041235,0.8418922792823149,0.34940846165872613,-0.29537660313044883,-0.24864415652622593,0.888753490134712,0.6390553814817024,0.31926299981600653,-0.5390402332408619,0.2903449676482145,0.04123082643058042,0.25758348780338447,0.5779339082148262,0.5004185097485334,0.3483897299084224,-0.2332256642055532,-2.3249865064830195,0.5757552926639748,-0.579752999617918,-0.14203585962681006],[0.41661587340515976,-0.5409865253576565,0.9593770915467885,0.3515194461720684,0.4373442995576401,-0.12637706832342824,0.12775200531928685,-0.7830972702646319,-0.2375954149494812,0.8303723862271692,-0.6137065431441382,0.5541761045881203,-0.9882260199450809,0.3374840883281249,0.34503011668082717,-0.23783675277929148,-1.5492487376486592,0.2154837679595977,0.7854828623108022,-0.2557021617740284,0.29545854189778936,0.30878043317381393,0.4104431118448991,0.694164010751382,-1.0026480285142236,-1.103108959604251,-0.00803153105552793,0.04704589244637261,-0.01517518159653716,0.4504583980903117,-0.4781264552909922,0.4950321148384279,-1.9032165399083216,-0.3341699277935332,0.3185690224709471,-0.10633226705407407,-1.73639563930903,-0.6078721648548215,-2.0188881586551255,0.27060721435002644,-0.6823679685010684,-0.34726910215979667,-0.34713637854937024,0.19999341227493514,0.042178986517565006,0.03201359124704288,0.9468492598378564,0.4984381740164321,-1.098633579782112,-0.9222307324171366],[-0.23803491289016948,0.5660230994015182,0.5001066301091885,0.6495906985521283,-0.42755927805319643,0.3378567712099707,-0.03747577426912561,-0.4914430193723917,-0.5349519165061306,-0.10856395540378701,-1.2485211322856296,-0.788575264155673,-1.0515313081158917,0.8295249248499327,-0.33342453214371837,-0.3564536887151145,0.4589244780747574,-0.017620102031921485,-0.08972506616544883,-1.2600926635227387,0.5925380835914994,0.06276284817766496,-0.8771171111682851,0.7765549046289383,-0.6640948362376848,0.035919801011671186,-0.33929422590443353,-0.47830944069840514,0.920984964289054,0.9179046786089591,-0.7929161747011214,-0.8438882906002982,-0.9716300252147663,0.037161203416144956,-0.7173137449563814,-0.29413005852350066,-0.07317244791284112,0.5603448130565482,-1.4992745548979252,-0.42064432212717007,-0.445639120473684,0.05024761386107664,-0.2987501676322533,-1.396792136604136,0.6931317256030419,-0.2548988142071385,-0.5170049122186048,-0.7798767947159867,-0.930306613622875,-0.20751571821031267],[-1.1030564293429703,0.49312132811176723,0.34304665112435,-0.696449316049344,0.33194446498063535,-0.4786325716762322,-0.4733687437432011,0.20473022310917297,0.044941572431072906,-0.9480691062683279,-0.11408614288623234,-0.2845510345566098,0.6893746800277802,0.7545086694528663,-0.10183894564354502,-0.8015734620660505,0.05207651879279349,-0.4808778944418747,-0.7700985835612194,-1.2287035466685794,-2.076841513797349,0.11373158304980818,0.5760374240988037,-0.7074687804488006,0.9635835051191903,0.5315920268074964,-0.1258034413824536,-1.2735079827124758,0.2623078189572416,-1.3643734221476942,-0.44883689768157103,-0.35799210856952063,-0.3371175660862524,-0.4888884139251256,-0.04461583543435695,0.8557261661513949,-0.5175633186219136,0.13044248439488498,0.0931645885089993,0.8677148205781348,-0.8504304927487808,0.6360041716209179,-1.516133688272131,-0.39996961704920264,0.9148438669098845,-1.496983031896932,0.2807958072138404,0.26492936758589486,0.1851524997702095,-0.38686205820141184],[-0.8372283229339209,-0.5855255133496524,0.917125595336932,0.39822500309037767,0.936322347320199,-0.7443342517327324,-0.5805123130868145,0.31672379105184906,-0.30601593318296777,0.18226904916338113,-0.509699348720777,0.909282250510331,-0.23112924750346447,0.8618800393142086,0.411472544015357,0.2672781685047104,0.5832485916798297,-0.6565325581772035,0.5372068022793465,0.39922610302469563,-1.9073248965730019,0.5203311910072542,0.07139311792625913,0.07439685361614796,-0.5470437627706649,-0.8185918937617382,0.26477261006561603,-0.03174189590825766,0.0027556834037959785,-0.2590287838119019,0.7862343197768038,-0.11420700500838776,-0.11838724221675315,0.21475931815700003,0.023362369544225062,0.7301765267858488,0.2563416335217459,0.2932700212559071,0.08704921950148688,0.3800881084748695,0.555344665343444,0.7228604661554344,0.29350363921079653,0.7665831050167373,-0.41748804455968797,-1.9109870555957338,-0.5172932451116258,-1.6415017206016957,0.05627739046277303,0.4539275536389752],[-0.9405260693639083,-0.37405397242916316,-0.011296845770086522,-0.8468470377055474,-0.27455119242991366,-0.01780553912669511,-0.31071548554549855,-0.403514061593294,0.6121911984680004,-0.6401181236020967,-0.4892728208677578,0.08116512647398758,-0.14452819980236506,-0.9394452764172495,0.4505848453503214,-0.7221123492525454,0.16096623695497414,0.3550408512344517,0.01252303436752812,-0.6831196500432739,-1.8169322820063885,0.20264733256908923,-0.15221018060125058,-0.5521072309734073,0.8721943158288462,-0.8151466090647858,0.4044546456609043,0.3387652431081353,-0.5220394277057306,-0.9684513447243813,0.3344950797190732,0.19393105669833702,0.2694393209845536,0.7177440233454209,-0.5791726704662178,-0.11835777253616672,0.6115255505921711,-1.0260855450698096,-0.36501197569418115,-0.6072157114347223,-0.025445645482769653,-0.41141455493392753,0.8058017287088557,0.8407339135944404,0.6029201216212908,-1.1420179088898774,0.3566555816565673,-0.740978689955764,0.35876979991208424,-0.7866751698774995]],[[-1.2638726034964936,-1.107610173255821,0.2927486745801433],[-0.09358103121249006,1.0681450186967134,-0.7779611949686874],[0.36321389640505514,1.4507297168937094,0.29275407834759026],[-0.012046143075244207,0.03580606446361362,0.6544706769049013],[-0.8994538764345618,-0.10260188343104668,0.9957676904083353],[0.4940240579409743,-0.804788075387843,0.4150551147433018],[1.631863592192103,0.13356050995807367,-0.07400641631690118],[1.7797664465147145,-1.1148878083865499,-0.1613394031575301]]],"Output":[[0,0,0],[0,1,0],[0,1,0],[0,0,1],[0,0,1],[1,0,0],[1,0,0],[1,0,0]],"Rate":0.1,"Errors":[-0.5374422443749661,0.08320043505443624,0.09239249984536195,0.08243395439453233,0.07489242988060335,0.06926811957624397,0.06490282038491743,0.06139197020592735,0.05848774812072391,0.05603148575728592,0.053916921915465536,0.052070047222989295,0.05043757489047971,0.048980045866662415,0.04766753403319357,0.04647687293527378,0.04538980768745047,0.04439172894897111,0.043470784333282525,0.04261724120007442],"Time":0,"Locale":"cn"}
